digraph Tree {
node [shape=box] ;
0 [label="X[15] <= 0.5\ngini = 0.5\nsamples = 439\nvalue = [352.152, 345.047]"] ;
1 [label="X[20] <= 0.5\ngini = 0.499\nsamples = 397\nvalue = [303.381, 326.887]"] ;
0 -> 1 [labeldistance=2.5, labelangle=45, headlabel="True"] ;
2 [label="X[0] <= -0.235\ngini = 0.493\nsamples = 268\nvalue = [191.496, 244.34]"] ;
1 -> 2 ;
3 [label="X[4] <= 0.5\ngini = 0.471\nsamples = 117\nvalue = [102.561, 62.736]"] ;
2 -> 3 ;
4 [label="X[33] <= 0.5\ngini = 0.429\nsamples = 89\nvalue = [87.5, 39.623]"] ;
3 -> 4 ;
5 [label="X[2] <= -0.423\ngini = 0.45\nsamples = 57\nvalue = [57.377, 29.717]"] ;
4 -> 5 ;
6 [label="gini = 0.265\nsamples = 25\nvalue = [26.537, 4.953]"] ;
5 -> 6 ;
7 [label="gini = 0.494\nsamples = 32\nvalue = [30.84, 24.764]"] ;
5 -> 7 ;
8 [label="gini = 0.372\nsamples = 32\nvalue = [30.123, 9.906]"] ;
4 -> 8 ;
9 [label="gini = 0.478\nsamples = 28\nvalue = [15.061, 23.113]"] ;
3 -> 9 ;
10 [label="X[2] <= -0.423\ngini = 0.441\nsamples = 151\nvalue = [88.934, 181.604]"] ;
2 -> 10 ;
11 [label="gini = 0.395\nsamples = 58\nvalue = [29.406, 79.245]"] ;
10 -> 11 ;
12 [label="X[23] <= 0.5\ngini = 0.465\nsamples = 93\nvalue = [59.529, 102.358]"] ;
10 -> 12 ;
13 [label="X[14] <= 0.5\ngini = 0.494\nsamples = 72\nvalue = [53.074, 66.038]"] ;
12 -> 13 ;
14 [label="gini = 0.499\nsamples = 52\nvalue = [43.75, 39.623]"] ;
13 -> 14 ;
15 [label="gini = 0.386\nsamples = 20\nvalue = [9.324, 26.415]"] ;
13 -> 15 ;
16 [label="gini = 0.256\nsamples = 21\nvalue = [6.455, 36.321]"] ;
12 -> 16 ;
17 [label="X[28] <= 0.5\ngini = 0.489\nsamples = 129\nvalue = [111.885, 82.547]"] ;
1 -> 17 ;
18 [label="X[5] <= 0.5\ngini = 0.49\nsamples = 90\nvalue = [81.762, 61.085]"] ;
17 -> 18 ;
19 [label="gini = 0.376\nsamples = 66\nvalue = [68.852, 23.113]"] ;
18 -> 19 ;
20 [label="gini = 0.379\nsamples = 24\nvalue = [12.91, 37.972]"] ;
18 -> 20 ;
21 [label="gini = 0.486\nsamples = 39\nvalue = [30.123, 21.462]"] ;
17 -> 21 ;
22 [label="gini = 0.395\nsamples = 42\nvalue = [48.77, 18.16]"] ;
0 -> 22 [labeldistance=2.5, labelangle=-45, headlabel="False"] ;
}