digraph Tree {
node [shape=box] ;
0 [label="X[4] <= 0.5\ngini = 0.5\nsamples = 448\nvalue = [353.586, 341.745]"] ;
1 [label="X[2] <= 0.471\ngini = 0.496\nsamples = 330\nvalue = [274.693, 227.83]"] ;
0 -> 1 [labeldistance=2.5, labelangle=45, headlabel="True"] ;
2 [label="X[26] <= 0.5\ngini = 0.459\nsamples = 183\nvalue = [167.111, 92.453]"] ;
1 -> 2 ;
3 [label="gini = 0.488\nsamples = 82\nvalue = [71.721, 52.83]"] ;
2 -> 3 ;
4 [label="X[20] <= 0.5\ngini = 0.415\nsamples = 101\nvalue = [95.389, 39.623]"] ;
2 -> 4 ;
5 [label="X[10] <= 0.5\ngini = 0.446\nsamples = 78\nvalue = [71.721, 36.321]"] ;
4 -> 5 ;
6 [label="gini = 0.487\nsamples = 42\nvalue = [34.426, 24.764]"] ;
5 -> 6 ;
7 [label="gini = 0.361\nsamples = 36\nvalue = [37.295, 11.557]"] ;
5 -> 7 ;
8 [label="gini = 0.215\nsamples = 23\nvalue = [23.668, 3.302]"] ;
4 -> 8 ;
9 [label="X[0] <= 1.057\ngini = 0.493\nsamples = 147\nvalue = [107.582, 135.377]"] ;
1 -> 9 ;
10 [label="X[27] <= 0.5\ngini = 0.499\nsamples = 126\nvalue = [98.258, 107.311]"] ;
9 -> 10 ;
11 [label="X[7] <= 0.5\ngini = 0.5\nsamples = 106\nvalue = [84.631, 82.547]"] ;
10 -> 11 ;
12 [label="gini = 0.382\nsamples = 42\nvalue = [22.234, 64.387]"] ;
11 -> 12 ;
13 [label="X[9] <= 0.5\ngini = 0.349\nsamples = 64\nvalue = [62.398, 18.16]"] ;
11 -> 13 ;
14 [label="gini = 0.432\nsamples = 33\nvalue = [28.689, 13.208]"] ;
13 -> 14 ;
15 [label="gini = 0.223\nsamples = 31\nvalue = [33.709, 4.953]"] ;
13 -> 15 ;
16 [label="gini = 0.458\nsamples = 20\nvalue = [13.627, 24.764]"] ;
10 -> 16 ;
17 [label="gini = 0.374\nsamples = 21\nvalue = [9.324, 28.066]"] ;
9 -> 17 ;
18 [label="X[30] <= 0.5\ngini = 0.484\nsamples = 118\nvalue = [78.893, 113.915]"] ;
0 -> 18 [labeldistance=2.5, labelangle=-45, headlabel="False"] ;
19 [label="X[27] <= 0.5\ngini = 0.485\nsamples = 74\nvalue = [46.619, 66.038]"] ;
18 -> 19 ;
20 [label="X[26] <= 0.5\ngini = 0.447\nsamples = 53\nvalue = [29.406, 57.783]"] ;
19 -> 20 ;
21 [label="gini = 0.47\nsamples = 24\nvalue = [15.061, 24.764]"] ;
20 -> 21 ;
22 [label="gini = 0.422\nsamples = 29\nvalue = [14.344, 33.019]"] ;
20 -> 22 ;
23 [label="gini = 0.438\nsamples = 21\nvalue = [17.213, 8.255]"] ;
19 -> 23 ;
24 [label="X[2] <= 0.471\ngini = 0.481\nsamples = 44\nvalue = [32.275, 47.877]"] ;
18 -> 24 ;
25 [label="gini = 0.494\nsamples = 21\nvalue = [15.779, 19.811]"] ;
24 -> 25 ;
26 [label="gini = 0.466\nsamples = 23\nvalue = [16.496, 28.066]"] ;
24 -> 26 ;
}