digraph Tree {
node [shape=box] ;
0 [label="X[0] <= 1.057\ngini = 0.5\nsamples = 442\nvalue = [355.02, 338.443]"] ;
1 [label="X[34] <= 0.5\ngini = 0.493\nsamples = 366\nvalue = [313.422, 245.991]"] ;
0 -> 1 [labeldistance=2.5, labelangle=45, headlabel="True"] ;
2 [label="X[14] <= 0.5\ngini = 0.489\nsamples = 314\nvalue = [272.541, 203.066]"] ;
1 -> 2 ;
3 [label="X[9] <= 0.5\ngini = 0.463\nsamples = 242\nvalue = [222.336, 127.123]"] ;
2 -> 3 ;
4 [label="X[28] <= 0.5\ngini = 0.485\nsamples = 171\nvalue = [142.725, 100.708]"] ;
3 -> 4 ;
5 [label="X[7] <= 0.5\ngini = 0.471\nsamples = 121\nvalue = [102.561, 62.736]"] ;
4 -> 5 ;
6 [label="X[26] <= 0.5\ngini = 0.499\nsamples = 79\nvalue = [60.963, 56.132]"] ;
5 -> 6 ;
7 [label="X[0] <= -0.134\ngini = 0.494\nsamples = 52\nvalue = [34.426, 42.925]"] ;
6 -> 7 ;
8 [label="gini = 0.491\nsamples = 30\nvalue = [23.668, 18.16]"] ;
7 -> 8 ;
9 [label="gini = 0.422\nsamples = 22\nvalue = [10.758, 24.764]"] ;
7 -> 9 ;
10 [label="gini = 0.444\nsamples = 27\nvalue = [26.537, 13.208]"] ;
6 -> 10 ;
11 [label="gini = 0.236\nsamples = 42\nvalue = [41.598, 6.604]"] ;
5 -> 11 ;
12 [label="gini = 0.5\nsamples = 50\nvalue = [40.164, 37.972]"] ;
4 -> 12 ;
13 [label="X[0] <= 0.246\ngini = 0.374\nsamples = 71\nvalue = [79.611, 26.415]"] ;
3 -> 13 ;
14 [label="X[1] <= -0.299\ngini = 0.324\nsamples = 48\nvalue = [58.094, 14.858]"] ;
13 -> 14 ;
15 [label="gini = 0.22\nsamples = 28\nvalue = [34.426, 4.953]"] ;
14 -> 15 ;
16 [label="gini = 0.416\nsamples = 20\nvalue = [23.668, 9.906]"] ;
14 -> 16 ;
17 [label="gini = 0.455\nsamples = 23\nvalue = [21.516, 11.557]"] ;
13 -> 17 ;
18 [label="X[30] <= 0.5\ngini = 0.479\nsamples = 72\nvalue = [50.205, 75.943]"] ;
2 -> 18 ;
19 [label="gini = 0.464\nsamples = 50\nvalue = [35.143, 61.085]"] ;
18 -> 19 ;
20 [label="gini = 0.5\nsamples = 22\nvalue = [15.061, 14.858]"] ;
18 -> 20 ;
21 [label="gini = 0.5\nsamples = 52\nvalue = [40.881, 42.925]"] ;
1 -> 21 ;
22 [label="X[0] <= 1.538\ngini = 0.428\nsamples = 76\nvalue = [41.598, 92.453]"] ;
0 -> 22 [labeldistance=2.5, labelangle=-45, headlabel="False"] ;
23 [label="X[1] <= 1.168\ngini = 0.474\nsamples = 46\nvalue = [30.123, 47.877]"] ;
22 -> 23 ;
24 [label="gini = 0.5\nsamples = 26\nvalue = [20.799, 21.462]"] ;
23 -> 24 ;
25 [label="gini = 0.386\nsamples = 20\nvalue = [9.324, 26.415]"] ;
23 -> 25 ;
26 [label="gini = 0.326\nsamples = 30\nvalue = [11.475, 44.575]"] ;
22 -> 26 ;
}