digraph Tree {
node [shape=box] ;
0 [label="X[20] <= 0.5\ngini = 0.5\nsamples = 457\nvalue = [349.283, 351.651]"] ;
1 [label="X[31] <= 0.5\ngini = 0.497\nsamples = 322\nvalue = [236.68, 274.057]"] ;
0 -> 1 [labeldistance=2.5, labelangle=45, headlabel="True"] ;
2 [label="X[2] <= 0.471\ngini = 0.496\nsamples = 240\nvalue = [171.414, 206.368]"] ;
1 -> 2 ;
3 [label="X[14] <= 0.5\ngini = 0.499\nsamples = 130\nvalue = [100.41, 107.311]"] ;
2 -> 3 ;
4 [label="X[33] <= 0.5\ngini = 0.5\nsamples = 94\nvalue = [76.025, 72.642]"] ;
3 -> 4 ;
5 [label="X[0] <= 0.81\ngini = 0.497\nsamples = 63\nvalue = [50.922, 59.434]"] ;
4 -> 5 ;
6 [label="gini = 0.491\nsamples = 37\nvalue = [32.275, 24.764]"] ;
5 -> 6 ;
7 [label="gini = 0.455\nsamples = 26\nvalue = [18.648, 34.67]"] ;
5 -> 7 ;
8 [label="gini = 0.452\nsamples = 31\nvalue = [25.102, 13.208]"] ;
4 -> 8 ;
9 [label="gini = 0.485\nsamples = 36\nvalue = [24.385, 34.67]"] ;
3 -> 9 ;
10 [label="gini = 0.486\nsamples = 110\nvalue = [71.004, 99.057]"] ;
2 -> 10 ;
11 [label="X[23] <= 0.5\ngini = 0.5\nsamples = 82\nvalue = [65.266, 67.689]"] ;
1 -> 11 ;
12 [label="gini = 0.49\nsamples = 52\nvalue = [48.053, 36.321]"] ;
11 -> 12 ;
13 [label="gini = 0.458\nsamples = 30\nvalue = [17.213, 31.368]"] ;
11 -> 13 ;
14 [label="X[5] <= 0.5\ngini = 0.483\nsamples = 135\nvalue = [112.602, 77.594]"] ;
0 -> 14 [labeldistance=2.5, labelangle=-45, headlabel="False"] ;
15 [label="X[26] <= 0.5\ngini = 0.398\nsamples = 109\nvalue = [100.41, 37.972]"] ;
14 -> 15 ;
16 [label="gini = 0.256\nsamples = 49\nvalue = [46.619, 8.255]"] ;
15 -> 16 ;
17 [label="gini = 0.458\nsamples = 60\nvalue = [53.791, 29.717]"] ;
15 -> 17 ;
18 [label="gini = 0.36\nsamples = 26\nvalue = [12.193, 39.623]"] ;
14 -> 18 ;
}